3.702092503337881535e-01 2.917577376710599690e+00 2.017162506128568289e+00 -4.272406266907215477e-01 7.088536865707870671e-01 1.244188460992228684e+00 5.445262854958989873e-01 1.558038699875589961e+00
2.600644489608342491e-01 4.185320208784978346e-01 6.860836173126628745e-01 -5.242533096274074600e-01 -1.409871838334572081e-01 -3.516791514615447145e-01 -5.852801616354682407e-02 5.734047053942320504e-01
5.157907086900769267e-01 -4.543274410618607817e+00 4.092877750489297917e+00 1.393572194269643960e+00 1.670580891490587971e+00 1.538428410652443068e+00 -1.887432760762899564e+00 1.252897272270092621e-01
-4.940206473047699109e-01 5.969512725582284407e-01 6.653306924572829351e-01 1.716303620822601517e-01 6.034607087256143032e-01 4.519496210868029218e-01 5.453225477014637113e-01 -5.211661975865555796e-01
-3.721999946978936435e+00 3.733727691315417019e+01 -1.829724755081793575e+01 -2.379785296676239614e+00 -1.352323668180954463e+01 3.127314698784251057e+00 -5.675900913460268704e+00 -2.606575836954909775e+01
