-2.906957362874701971e+02 4.625507088839364656e+01 -1.387660863710426895e+02 -1.796380293802105825e+02 1.695782457276690991e+01 5.498479170464949561e+01 7.046702500733152874e+01 -8.384547428925625923e+01 7.587100763002912629e+01 -3.490838215411532985e+01 1.928687483208645119e+02
-5.975443876457504189e+00 9.340219959542499506e-01 3.773630699584217263e-01 -9.225192972812263914e-01 -1.519730304261700075e-02 4.563159784907066530e-01 -1.700178823658088367e-02 -3.146723524571393149e-01 1.195765886465544048e+00 1.674007607440622936e-01 3.270944418398007425e-01
-4.408510073959300826e+02 1.279238530849230528e+02 2.142138678880791645e+02 7.446341743575651151e+01 7.403330101468669433e+00 1.670959496933059185e+01 -3.942754893925202708e+01 1.664780480817111652e+02 4.918777319293239714e+01 7.250373671657372654e+01 -1.794224437367867608e+02
-2.571010713261439378e+02 1.927708392045424830e+02 -1.462507960484280467e+01 2.444635365177324715e+01 8.775871390110545178e+00 -4.977389814269111312e+00 1.762024787498448575e+02 7.077530675414816130e+01 2.532433184560257544e+01 9.998917572099098550e+01 -2.784454308877387518e+01
2.162012871234890952e+02 -1.294673214619674013e+02 -4.814418368302877838e+00 1.479166130973210898e+02 1.269451973165818259e+02 9.917488303256216398e+01 -3.244065958900326336e+02 1.373189400991022069e+02 9.645996474998026482e-01 -1.735817746819423917e+02 -1.589226747474772878e+02
