-2.292366261295136542e+00 -2.033258744911945470e+00 -1.743920245730230523e+00 -6.823734618827014264e-01 -1.194649852216497221e+00 1.064751314699858176e+00 1.703031773698885365e+00 -4.462545320003771798e-01 1.980138858198628560e+00 7.074282895271868377e-01 3.206672786997880387e+00
-1.711980515838308570e+00 2.255543798542706924e+00 -3.549860658195588492e+00 -2.919521824037530688e+00 2.652002880022768849e+00 2.194126299817064085e-01 5.000000000000000000e+00 1.003423152531324192e+00 2.478774521450145762e+00 5.000000000000000000e+00 -3.504404355846990615e+00
3.121340111239995885e+00 2.474432690029986226e+00 1.212613279808303135e+00 -2.825045240533469393e+00 -8.555606378063589090e-02 2.786112036567259587e+00 -1.000726976365039267e+00 1.188040709838082964e-01 1.903591732007324788e+00 1.021193101979155138e+00 -4.921380017490524228e-01
-2.203190113306324083e+00 1.883902204129184535e-02 2.066383072186828596e+00 3.239098719915511460e+00 2.358979154065770356e-01 -2.078155103966362827e+00 -1.732193676467850718e+00 2.282746905509756896e+00 -2.265351610587729159e+00 9.150666334351807985e-01 -3.806612980462111828e+00
-5.000000000000000000e+00 4.045882256372687613e-01 -6.186217961904710849e-01 1.731011374353570442e-01 -7.018558284731142571e-02 -8.199134705325427097e-01 -1.452955212354215819e-01 -4.548123728723799455e-03 4.380481660012323641e-01 2.619588304090047171e+00 1.611190771156231438e+00
