-4.903412761300804945e-01 -4.270108913457905109e-01 -6.879797082388470209e-01 5.404794005485092923e-01 -2.484525073554942898e-01 1.067214706865596413e-01 -4.977431398303136523e-01 -6.279093267826953984e-01
5.421226851991203105e-02 2.680965351979270883e-01 1.710762048968851312e-01 5.219613253463337710e-01 7.633106247967905711e-01 1.775599038289492893e-01 -3.712378538926773830e-01 3.771918378956820028e-01
-2.529955034323584651e-02 -1.168596687391890016e-01 -9.680375399035812123e-01 -6.819913510279353164e-02 -2.094546256116013028e-01 -4.011917171955652339e-01 2.212133337531455302e-01 -6.372825557283331444e-01
2.445262081342470806e-01 -2.237737939341910287e-01 5.675251401263241569e-01 2.464208850454085997e-01 9.403317822232355738e-02 5.888796777528031434e-01 1.222888743683456375e-01 2.754847523637837803e-01
2.065985925490000652e-01 4.042681604591352729e-01 4.485993134844417085e-01 -3.352667551979466309e-01 7.014482364472439668e-01 -3.477660405981167768e-01 -3.256051005904295192e-01 -1.114541318204200909e-01
